//Numpy array shape [32, 5]
//Min -1.007784008980
//Max 0.849434196949
//Number of zeros 0

#ifndef W11_H_
#define W11_H_

#ifndef __SYNTHESIS__
model_default_t w11[160];
#else
model_default_t w11[160] = {-0.0874966830, -0.0611857213, 0.2782140672, -0.0212761443, -0.3865544796, -0.2880328894, -0.1302489638, 0.4515379965, 0.1061745957, -0.0266895592, -0.5098640323, -0.3335888386, -0.0703792945, 0.7071062326, -0.3975531757, 0.2595121861, -0.2523206472, -0.2307056636, -0.3263964355, -0.1585621387, 0.1663599014, 0.2832905352, 0.1724786311, -0.1054135785, -0.1055347025, -0.1494182050, -0.1492311358, 0.4370369315, 0.5531917810, -0.2778623402, -0.2509711385, -0.0564541481, -0.3484487832, 0.1927204281, -0.1702028215, 0.4976249635, -0.1953331679, -0.3785062432, -0.2643381953, 0.0448320657, 0.0878926963, 0.3495233953, -0.2376791984, -0.0834005624, 0.2343747616, 0.2257748991, 0.0047971476, 0.1641847789, -0.5710101724, 0.3851936460, 0.3662364781, -0.2560306191, -0.1057200730, 0.4147848785, -0.0976624042, 0.1271797270, 0.0846043900, -0.3319906592, -0.1516188234, 0.0517314710, -0.4021476805, -0.4323136210, -0.4238832593, -0.2403042763, 0.3523610234, 0.4324359894, -0.1660778970, -0.2291647345, -0.1910046935, -0.1974069178, 0.1588075906, 0.1004156023, -0.6250913739, 0.3521607220, 0.2860569656, 0.0130480444, -0.3043470383, -0.2958848774, 0.6246608496, -0.1114870682, 0.2024656683, 0.0940271765, -0.0821816921, -0.1945129633, -0.2935767174, -0.0011611030, -0.2208790332, 0.4162517488, 0.0166134071, -0.1870551109, -0.0060132537, 0.2978519499, 0.1807932258, -0.1651338339, -0.0921923146, -0.5128843188, 0.3292535245, -0.0510330237, -0.1372288913, -0.0487209335, 0.1460723877, 0.0249873847, -0.6339333653, -1.0077840090, 0.8494341969, -0.1711426824, -0.2077201456, 0.2345251590, 0.6572869420, -0.4183723032, 0.0830146968, -0.1374881715, 0.4822968245, -0.0907418579, -0.4762000144, 0.0000261911, 0.0000371326, -0.0000542670, -0.0001499451, 0.0001706236, -0.3268421590, -0.2309289575, 0.0360447131, 0.4724690318, 0.5560095310, -0.3458745182, 0.0066309222, -0.3505368233, 0.3848083615, 0.0876367241, -0.2759754360, -0.4255127013, -0.2246062160, 0.3540818989, 0.3683617413, -0.3263795078, -0.4835836589, -0.0408686325, 0.0427883752, -0.0249952357, 0.0005456124, -0.2474274039, 0.0266993940, -0.3634452224, -0.0590179265, -0.3779793382, -0.2487532645, 0.3477053344, 0.0455848165, 0.2147158235, 0.2884208560, -0.0127561493, -0.2823607624, -0.8209603429, 0.5823679566, -0.3523560166, -0.2889551818, 0.2785897553, -0.3962930441, 0.6137342453};
#endif

#endif
