//Numpy array shape [64, 32]
//Min -0.752770066261
//Max 0.611088812351
//Number of zeros 0

#ifndef W5_H_
#define W5_H_

#ifndef __SYNTHESIS__
model_default_t w5[2048];
#else
model_default_t w5[2048] = {0.1329223514, 0.0201244149, 0.1585471332, 0.2876581550, 0.1307004839, 0.0015166823, 0.0666707829, 0.0955427736, 0.0918254480, -0.0268931091, 0.2711856365, 0.0701482669, -0.1573048681, 0.1677386910, 0.0144436490, 0.1273237318, 0.1356762946, 0.0239684358, -0.0509720109, -0.1437170804, 0.1592619121, -0.0007005554, -0.0181294829, 0.0478573181, -0.0041992362, 0.2230824083, 0.2714681029, 0.1085844263, 0.0720458701, 0.0272236522, -0.0273577981, 0.0376713537, -0.0026257960, -0.0194716733, 0.1549769491, 0.2087580860, 0.0109432722, -0.0275129303, -0.1025232300, -0.0381670296, 0.1762479246, 0.1742521375, 0.0993809476, 0.0684377179, -0.0372938104, 0.0622797385, 0.1466090679, 0.1409491748, -0.1002562642, 0.0006146559, 0.1343260109, -0.1101555750, 0.1535551548, -0.0000479771, -0.0154571813, -0.1085898653, 0.0565249771, -0.0003836582, 0.1135976091, 0.0002744837, 0.0410224982, 0.0167215895, 0.0447613038, -0.3026886880, 0.0963979438, -0.1739097238, 0.0450159051, 0.1931538731, 0.1821872890, -0.0056789354, -0.2735799849, -0.0006086637, 0.0387321077, -0.1165022105, 0.0006051499, 0.1195401996, 0.0001669211, 0.0540863834, 0.2462597787, -0.0541533753, -0.1273520291, -0.0830043778, -0.0299263038, -0.1297129542, -0.0280317031, 0.0001471681, -0.0143742478, 0.0616865419, 0.0234705824, -0.0012092098, 0.0956860408, 0.0000236880, -0.0436536893, 0.1661302894, 0.0364461429, -0.0505794510, -0.0003907839, 0.0295614582, -0.2777493000, -0.2820197642, -0.0456358194, -0.0993323699, 0.2787548304, 0.3144131601, -0.1988913268, 0.3510373235, 0.0154244918, 0.1302228123, 0.1678407192, -0.0477857888, -0.2175137699, -0.0240689218, -0.1514854729, -0.0057744216, -0.2112798989, 0.1095963866, 0.0934100822, -0.0005171935, -0.0930518135, 0.2776291668, 0.0126060378, -0.1153463572, -0.3197011352, 0.0032810825, 0.0001348777, 0.1297052503, -0.0880227461, 0.2765316367, 0.1098633111, -0.0585397780, -0.2182864249, 0.1611658186, -0.0229754001, 0.0324834250, 0.0632239282, 0.0669415146, -0.0548308305, -0.0138198230, -0.1106700972, -0.1742871553, 0.1757253110, -0.0749894679, 0.0022800737, 0.0895420760, 0.0277315676, -0.0539806150, 0.1821077168, 0.0153291197, -0.0673222020, -0.0445676744, 0.1714535356, -0.1926821768, 0.1795964241, 0.0001917534, -0.1629797220, -0.1090736687, 0.2069194764, -0.1724636108, 0.1481647640, 0.0200262852, -0.1869989336, 0.2528796792, -0.0336767472, -0.0073363809, -0.0149239665, 0.0001412735, 0.1274634153, -0.0844545886, 0.1855338067, 0.0714174062, 0.0813901946, -0.2032015622, 0.0241618603, 0.0255113486, -0.4805670679, 0.2753869891, 0.0726627335, -0.1871521622, 0.0007174386, 0.1700400412, -0.0001987885, -0.0002533178, -0.3630801439, 0.1112306193, 0.0468727797, 0.1107648164, -0.3452313244, 0.2014398724, 0.1128478497, 0.0001132538, 0.0001027931, 0.2296925634, -0.1986886859, 0.1479282677, 0.0386387706, -0.3793823123, -0.1561406702, 0.1803353876, 0.2013438046, -0.0915885642, 0.2007973343, -0.1008744240, -0.0087474464, -0.1953659505, -0.1085525230, -0.1897827983, -0.6175911427, -0.0126677360, 0.2430791557, 0.0613287538, 0.1343773603, -0.0914263725, -0.0216470808, 0.0709700435, -0.2331100255, 0.1444979012, -0.0746931732, 0.1910296082, -0.3184877932, 0.0920374095, 0.1755030751, -0.0432262532, -0.6289838552, 0.1833449900, -0.1367168874, 0.2616334260, -0.1558435708, -0.0961886719, 0.0002066950, 0.0239594597, -0.0312700160, -0.1483918875, -0.0420934446, 0.0238939486, -0.1014824733, -0.0001232971, -0.1044945270, 0.0846947357, -0.1225593761, 0.0333319567, -0.1013464406, -0.0193167161, 0.2434913069, 0.1622421443, -0.0293107778, 0.0986828953, 0.0014198787, 0.0112185162, 0.1956140250, 0.1513084024, -0.0609316528, 0.1664359123, 0.1164799035, 0.0010904659, 0.0155747700, 0.0346026011, -0.1303385794, 0.0568098500, -0.0496045165, 0.0499334186, 0.1429342330, 0.2928444743, 0.2271161973, -0.0130708460, -0.1958949268, 0.0248307232, -0.1060521007, -0.0000042352, -0.0597401373, -0.1029528901, -0.3159705400, -0.0508710891, -0.0237014629, -0.1444446743, -0.0304485150, -0.0824558884, -0.1783362776, -0.0000375387, -0.0529623404, -0.1658073217, 0.1086399257, -0.0103902761, 0.1679359972, 0.1490436047, -0.1009630188, 0.0817850754, -0.0005965836, 0.3210439086, 0.0024075136, -0.0194197726, -0.1178800985, 0.1853094101, 0.1831050217, -0.1032482758, -0.1613264233, -0.0536866300, -0.0000411915, -0.0130212177, 0.0098953089, 0.1456550956, -0.0027049789, 0.2186896503, 0.0003303340, 0.1428375989, -0.1353900731, 0.0003497955, 0.0000441228, 0.0161909387, -0.0266936496, -0.0000036401, -0.0001919779, 0.0684462935, -0.0002893033, 0.1107391268, 0.1244181171, 0.2309791744, -0.1335923523, 0.0721339658, 0.1756783277, -0.2239910513, 0.0003767347, 0.1020766944, 0.1809885651, 0.1353882849, -0.1123638600, 0.0424987264, -0.0261347871, -0.0101257171, 0.0199251473, -0.0000411463, 0.0012435948, -0.0000830698, -0.0243558902, -0.0513789468, -0.0044113300, 0.1017430797, 0.0780386329, 0.0262153242, -0.0363660231, 0.1504324526, 0.0000152149, 0.0975449830, -0.0003742735, 0.0035119234, -0.0092087835, 0.0956083536, 0.0000646007, 0.1095393673, -0.1118962094, 0.0000480015, -0.0067065782, -0.1033762321, 0.1972266287, 0.0566871241, -0.0489206053, 0.3107706308, 0.2437041253, 0.0002782754, -0.1094636023, 0.0632170439, 0.1291299760, -0.0442516468, 0.1450273991, 0.0824235454, -0.0091939997, 0.2269106209, 0.2379986793, -0.1620369405, 0.1648457199, -0.0652492344, 0.0070965369, -0.0329589099, 0.0787035301, 0.0003917622, 0.2743355334, -0.0886223540, -0.0680214614, -0.0377414413, 0.0367595218, 0.0494498983, -0.0015489202, 0.1872176081, 0.0313524120, -0.1056323275, 0.1163119525, -0.0148717789, 0.1684225351, 0.1203380972, 0.1181692034, 0.0184038356, -0.0340658352, -0.1521171480, 0.0604078844, 0.0073883827, 0.1341917664, 0.0205595940, 0.1335078031, -0.0210449640, -0.1765256077, -0.0314346515, 0.2178132534, 0.0028052437, -0.0784893632, -0.0723837167, 0.1083559617, -0.0001924562, 0.0488861501, 0.1345032156, 0.0326929688, 0.1127024442, 0.0002574052, -0.0604606941, -0.0330391340, 0.1220431030, 0.0009276675, -0.0114395525, -0.0925682932, -0.0268754158, 0.1474179626, -0.0198885370, 0.0001699279, 0.0032274800, 0.0002822702, -0.0288342051, 0.2166721374, 0.0230695475, 0.0003601678, -0.0042863134, -0.0000872894, -0.0001473860, 0.0422985815, -0.0579961725, -0.0430268757, -0.0125268679, 0.0748859122, 0.1154722124, 0.0005802902, 0.0059100622, -0.1598345935, 0.1212285608, 0.0232466403, -0.0309594441, 0.1016029790, 0.0456072316, -0.1074206084, 0.0724008232, 0.0585196652, 0.1081182137, 0.1160159633, -0.0113615282, 0.0194238592, 0.0355567150, 0.0004237770, -0.1116485596, 0.0092620673, -0.0026067735, -0.1273621321, 0.2689664066, 0.3179716766, 0.0863003731, -0.1746968925, 0.0643040314, 0.3244818449, 0.0083121443, -0.0835530236, 0.0004122537, 0.1880941242, -0.0004170953, -0.0248735473, -0.0006268187, 0.0001563126, 0.0258842520, 0.1324248314, -0.1240575835, 0.0364441089, 0.1238748208, 0.0079905940, 0.1072700694, -0.0549419560, -0.0052171838, -0.1634538174, 0.0811365098, -0.0776689053, 0.1036213860, 0.0257944372, 0.1790193766, -0.1543082893, -0.0752809793, 0.1418463886, -0.0670150742, 0.0003269008, 0.0746409893, -0.1637371182, 0.1785313338, -0.1146417931, -0.1589331478, 0.0036595005, -0.0798077136, -0.0617466979, 0.1573626250, -0.0010666508, -0.0293163955, -0.1247063801, -0.0557152815, 0.1238078102, -0.0148864333, 0.1674027592, -0.0066318866, -0.0719795674, -0.1256074607, 0.0309865605, -0.1437228620, 0.0613548718, 0.0673131719, 0.0982959718, -0.0630838722, 0.1354506761, 0.0411659740, -0.0551385097, -0.0248718373, 0.1313901842, 0.0388204493, -0.0261668582, 0.2601637840, -0.1636015028, -0.0200072490, 0.2142285407, 0.1265428960, -0.0006305040, 0.1739586741, 0.0010285866, 0.0077795563, -0.0564579368, -0.0000189266, -0.0329750106, 0.1333267838, 0.0000240702, -0.1048048586, 0.0006110462, -0.0051800390, -0.0739217848, -0.0848866031, 0.1034970507, -0.1298325062, 0.1145911738, 0.4568627775, 0.2541510165, -0.0096694911, 0.1908853799, 0.1108887941, 0.0051211743, -0.2785161436, 0.2461324781, -0.0245499965, 0.0529819913, 0.1003307253, -0.2420042902, 0.1563211977, 0.0546274669, -0.1992286146, 0.2748803496, -0.0268626604, -0.1471436769, -0.0296455342, 0.3998282850, 0.0002127022, 0.3278515637, 0.3619205654, -0.3127165437, 0.3399223089, 0.2605634630, 0.0370404571, -0.0323742479, 0.1246819496, 0.0005349349, 0.0209285021, 0.0014394579, 0.3662685752, 0.0632092655, 0.0152764833, 0.0118902912, 0.2320320308, -0.1496210098, -0.0759371147, 0.0599537157, -0.0375140868, 0.0957020596, 0.0002291821, -0.0179173425, -0.0992117077, 0.0074372455, 0.1147293076, 0.0368949585, 0.1308144033, 0.2398569733, -0.0369047448, 0.2110210210, 0.0305313431, 0.1401915103, 0.2992392778, -0.2299144566, 0.0855888799, 0.0748990104, -0.0005879518, 0.1083222330, 0.0001602534, 0.0051820762, -0.1029714644, -0.0210039131, 0.1441562474, 0.2148005813, 0.1327195913, 0.2465305477, -0.1982340664, 0.0000558299, 0.1316421926, 0.1453945637, -0.0517858192, -0.0369158573, 0.1317563206, -0.0296985228, -0.0403397381, 0.0121441698, -0.1215516627, 0.1365752518, 0.0021346195, -0.1526177377, 0.1313105524, -0.0325879417, -0.0001273408, 0.0458694622, -0.0366296805, -0.0228045713, 0.0271093473, 0.1218794137, 0.1764995307, 0.0433863178, 0.0355561115, -0.0104035866, -0.1433195025, 0.0016171943, -0.0966456309, -0.2572886944, 0.2935696840, -0.0060495879, 0.1707185358, 0.1383556128, -0.0006682887, 0.1471971422, -0.1375108361, -0.0136658577, 0.0011815524, 0.1413373798, 0.0798591673, -0.0342437327, 0.0009714841, 0.0519179516, 0.0006854240, -0.2099792808, 0.0952723250, -0.0277801752, -0.0002426359, 0.0201007053, -0.0210468844, 0.1064997762, -0.1888685226, -0.0508815087, 0.0151540563, -0.0035691394, -0.0367832333, -0.5235186815, 0.1335535049, 0.0100237196, -0.1176387593, -0.0911170095, 0.1317722201, 0.0193955004, -0.2273021191, 0.0004535264, -0.0000909577, -0.2041155249, 0.1542337686, -0.0098596839, 0.0001647921, -0.0045613404, 0.0501044318, -0.1472800225, 0.1305294931, -0.1632970273, -0.1080438942, -0.0804528818, 0.0912818313, -0.0712679774, -0.0000455514, 0.1145252213, 0.0149268173, -0.0162976198, 0.0040074261, 0.0949593261, -0.0186693650, -0.0089350715, -0.0108510777, -0.0464933589, 0.0247343350, -0.2361954153, -0.0165327415, 0.0692966804, -0.1317421347, -0.0188074522, 0.0182760041, 0.1852819026, 0.1869032383, -0.2362245321, 0.1751132607, -0.2401544452, -0.0013285045, -0.0091250241, -0.1485806406, -0.0781270266, 0.1438771337, -0.0578532182, -0.0711487681, -0.0209627077, 0.1515035927, -0.0411622040, 0.0001806286, -0.0002676920, 0.0897333622, -0.1761275828, -0.0001279708, 0.0901925638, 0.0825129896, -0.1359799206, 0.2372785509, -0.2167204767, 0.1296029687, 0.0408042520, -0.2198868990, -0.0322951563, 0.2077031881, 0.0450517088, -0.1820186675, 0.0781799108, 0.2157214880, 0.0787314847, 0.0813226029, 0.0372090898, 0.1703245938, -0.0275464561, 0.0023731836, 0.2762254179, 0.0160837620, -0.0680624321, 0.1104108542, 0.0284389313, -0.0890135169, 0.0084082792, -0.0002941429, 0.2630617917, -0.1688669026, 0.1850338578, -0.1739094853, 0.2239061594, -0.0578876100, -0.1073816568, 0.0949090943, -0.0899689943, -0.0715651289, 0.0601242483, -0.3170143068, 0.2452035397, -0.0354514867, -0.0914886966, -0.0000982600, -0.5061669946, -0.0890306756, 0.0169760156, 0.1517324448, -0.2939088643, -0.1539537013, -0.1847902238, -0.2771089077, 0.1750269085, -0.1510709971, 0.1817692071, 0.1394553930, 0.0145289740, 0.1583607644, 0.0252871588, 0.0000365285, -0.3110835552, 0.0879200324, 0.0128912767, 0.0315677412, 0.1814169288, 0.1444479376, 0.1928865314, -0.1841039360, 0.3252712190, -0.3389491141, 0.1030654833, -0.0008494140, -0.1419776380, 0.2703623176, 0.1976723224, 0.0192925576, -0.1117739007, -0.0577932224, 0.0402518921, -0.1266759038, -0.0009476671, -0.0878002867, 0.0976312980, 0.1917595565, -0.0597237498, 0.0669237375, -0.1360920370, 0.1351103485, 0.1930440515, -0.0336690545, -0.0004138343, -0.0001861600, -0.0389420986, 0.1323574930, 0.1975217611, 0.1037795395, -0.0266838260, 0.1138121113, -0.1209951788, 0.0180206802, -0.1040217653, 0.2115895152, -0.1216310635, 0.0670286417, 0.1182473600, 0.0813099742, 0.1260903031, -0.0931177586, 0.0601370931, -0.0843918324, 0.1295322180, 0.0094489437, 0.0429425836, 0.0014771108, 0.0132895438, 0.0528016463, 0.1851723492, -0.1010143086, 0.2463252097, -0.2614864707, -0.0715333000, -0.0024808608, -0.0723573193, 0.0001299765, 0.2049739361, 0.2743805945, 0.1520843208, 0.0959390849, -0.0006726983, -0.0061954730, 0.1132165343, -0.0634886697, -0.1619219780, -0.1604041755, -0.1592277884, -0.1329520196, -0.0466352440, -0.0051282602, 0.1180140600, -0.0318818167, -0.0795353726, -0.0665626675, -0.0022771806, 0.1470449567, -0.2062856406, -0.0927114040, 0.1513107717, -0.0114371059, -0.0829235762, 0.0088790348, -0.0234481171, 0.2308862507, -0.0244305581, 0.1644420177, 0.2824093401, -0.0000066097, -0.1976251900, 0.2215327322, 0.1161441877, -0.0192272980, -0.0336960703, 0.0003545497, -0.1309769154, -0.0065084640, 0.0370612629, -0.1081008390, -0.0448696055, -0.0377297737, 0.2553760707, -0.0234426763, 0.0768369511, 0.0000156334, -0.0024411445, -0.2577159107, 0.1973292381, -0.4057792425, -0.3483442068, -0.1613800079, 0.0911170468, 0.1125502288, -0.1647569835, -0.3797528148, 0.1839099973, 0.0366190523, -0.2375853807, -0.0070051490, -0.1027472615, 0.0910609961, 0.1637825072, 0.0212073345, -0.2239353359, 0.1304055452, -0.2172474712, 0.0731303170, -0.2813329101, -0.3597233593, -0.2475540787, 0.1492004991, -0.2438327372, 0.0461478271, -0.0359852277, -0.2060729563, 0.0002462690, 0.0002838301, 0.0007806291, -0.0585328564, -0.0002039324, -0.0883257464, 0.0002576399, -0.2029105425, 0.1061580554, -0.1923274845, 0.0000174795, -0.3162068427, 0.2875398397, 0.0004950237, -0.0286600664, -0.1572762579, 0.3499528468, -0.0000590931, -0.0352003612, 0.0772612393, 0.0507626347, 0.0338534638, -0.0427864194, 0.0893022642, -0.0870478451, -0.2887618542, 0.1292956322, -0.1008317471, 0.1735546738, 0.0323235393, 0.0054865535, 0.2021921128, 0.0474224724, 0.0031544752, -0.1138643026, -0.0218935814, 0.0004677143, -0.2266288400, -0.1769222468, 0.1602272987, 0.1930835545, 0.1429610401, -0.1725013256, -0.0216985382, -0.0118029313, 0.1040285677, -0.1176904365, -0.0613423474, -0.0512882397, 0.0002655722, -0.0388463810, -0.0807006434, 0.1256983727, -0.1059364676, 0.0925927758, -0.0137399258, 0.0873320326, 0.0673173815, -0.2463764846, -0.0001712665, 0.0001067611, -0.0644636601, -0.0622561611, -0.0037992971, -0.0159542672, -0.0643949732, 0.0141819706, 0.0008275314, 0.0022798362, 0.0079484871, -0.0244085025, -0.0001809791, 0.1330388784, -0.0003436475, -0.0451757908, 0.1272927225, -0.0821837634, -0.1942261904, 0.0000641546, 0.0014970115, -0.1049185470, -0.0001309105, -0.0071316771, -0.0637118518, 0.0004057536, -0.0001016097, -0.0757653937, 0.0018796476, 0.2078265250, 0.0002064637, -0.0656593069, 0.1864598095, -0.0289136712, -0.0104017165, -0.2695808411, -0.0293924641, -0.2374357134, -0.0006707751, 0.1460726708, 0.2349184155, -0.0895023495, 0.0573276430, 0.0179813467, -0.0825070739, -0.0073977355, -0.1471931934, -0.1673184186, 0.3613384962, -0.1795814186, -0.0011523282, 0.1354085058, -0.0065379115, -0.0000154344, -0.0000399582, -0.0403722450, 0.2869305313, 0.0732405707, 0.0002337753, -0.1007980108, 0.0008005530, 0.0805708170, -0.0000898244, 0.0008923517, 0.3743824363, 0.1435215622, 0.0130964881, 0.1504284739, -0.0665986985, 0.0974448621, 0.0572249889, -0.1607489586, -0.1265926361, 0.0027273127, -0.0387185887, 0.1583025306, 0.0434795544, 0.0818260312, -0.0580966510, -0.0713354647, 0.2297416031, -0.0079033626, 0.0000780881, -0.0042348993, -0.2465723306, -0.2050165981, -0.0144038349, 0.0837337449, -0.0404751115, 0.1312029213, 0.1520812660, 0.1474745125, -0.0562223010, -0.2542726398, 0.0591157004, -0.1385815293, 0.1777490377, 0.0080962377, -0.0740870163, 0.0327396691, 0.2225970626, 0.0243177339, 0.0626841113, -0.0024117208, -0.0014759370, 0.2507417500, -0.0041086711, -0.0122262584, 0.0006291090, -0.1001826227, 0.0142718628, -0.0436668880, 0.0064156880, -0.0033790502, 0.0789508596, 0.0161109902, 0.0491938181, 0.0758885965, 0.0000965813, 0.1658365875, -0.1704574078, 0.1319919676, -0.0946568474, 0.0004023449, -0.0835168287, -0.0184030570, 0.0003742778, -0.0302894525, 0.0624917001, 0.0047972226, -0.1308830231, 0.1345634758, 0.0045593716, 0.1451600641, 0.0510752983, -0.0002597189, -0.1624354869, 0.2338872403, -0.0360681228, -0.1520418376, 0.0049786135, 0.2193958163, 0.1257928759, -0.2711530924, -0.1593876779, -0.0210009441, 0.1246725097, 0.1938950568, 0.0899517238, -0.0799633414, 0.0636904836, 0.0771795586, -0.2337928116, -0.0542816445, -0.0807097331, 0.0110094557, 0.0000866347, 0.0198662728, -0.1191469058, -0.2068687230, 0.2159858197, -0.2123946846, -0.0000847379, -0.1690974236, -0.0906990543, 0.0630857423, -0.0780463889, 0.0013172615, -0.1722546220, -0.0385299064, -0.1523072571, 0.0493070930, -0.3117141128, 0.0421347022, -0.0002107723, -0.0006590241, -0.1443250477, -0.0006213657, -0.0730459020, 0.1542260945, 0.0868308470, 0.1878291667, -0.0001475783, 0.0385672599, -0.0482103825, 0.0000595195, 0.1802542806, -0.1441487968, 0.0002602811, 0.0019962580, -0.0000410984, -0.0527728461, 0.1076896861, -0.1988677233, -0.1879843473, 0.0863959417, -0.0019925239, 0.0943228155, 0.0000932085, -0.2910770476, 0.1611645818, 0.1276964545, -0.0855558291, 0.0540309250, -0.1642779112, 0.0138543276, -0.2759224474, 0.0083242450, -0.0798445940, 0.3022010028, 0.1856833845, 0.1646755189, 0.1574546248, 0.2613770068, -0.0004631831, -0.0224380363, 0.1383342147, 0.2391963303, 0.1740738451, 0.0765331164, -0.0533206090, 0.0474393331, -0.1881099939, 0.3213473558, -0.1964067221, -0.0001576037, 0.3832630813, -0.0018645151, -0.2863689363, -0.1011985242, -0.1413913816, -0.0004316965, -0.0000928725, -0.0543335304, -0.0763281733, 0.1485517621, 0.0275898688, -0.0116991075, -0.2008374631, 0.0000749796, -0.0068612588, -0.1788862795, -0.1275341064, 0.2039689422, 0.1422367394, 0.1471470594, -0.0070754592, 0.0191662032, 0.2612258792, -0.0080707921, 0.0008691488, 0.0026529834, -0.0039536608, 0.3250370622, -0.0005776449, 0.0005808205, -0.0067837005, 0.0629803985, 0.1085640714, -0.0341028795, 0.0647561550, -0.0115544097, 0.1962200701, 0.2604381740, 0.0002856770, -0.0015809081, 0.1447100490, 0.0514364280, -0.0154963322, 0.2004720271, -0.0124856466, -0.0143537307, -0.0227047578, -0.1790269613, -0.0677311420, 0.1728945971, 0.2135763466, 0.0105121937, 0.0001194145, 0.1211612448, 0.0876269490, -0.1791225076, 0.1771413386, 0.0709691718, 0.1815869510, 0.1008017734, 0.0076726130, -0.0399844423, 0.2578657568, -0.1055060402, -0.0671968982, -0.1470215172, -0.0402325317, -0.2842536569, 0.1397546083, 0.0178010259, 0.0000427066, -0.0036633441, 0.2329680473, 0.0947203860, -0.0019519874, 0.0156238452, 0.1690664142, -0.0001988823, -0.0061189150, -0.2438116521, -0.0383056365, 0.0003489236, 0.3994250596, -0.0084043005, -0.0002192629, 0.1460329443, 0.1443382800, 0.0607899427, -0.0490520447, -0.1334283054, 0.0003985421, 0.0084218988, 0.0202643592, -0.0001763347, 0.2326627374, -0.0197539199, -0.0878951624, 0.1317286938, -0.0000974719, -0.1083701253, -0.1310614645, -0.0296769142, -0.0314003974, 0.2012791187, -0.0225028768, -0.0000622575, -0.1076668426, 0.1025718898, -0.0809815302, 0.0508732051, -0.1279211044, 0.1315847188, -0.1712829918, -0.0213487651, 0.1469516307, 0.1297836304, 0.0000422666, -0.1876017451, 0.2018096745, 0.0444440767, 0.0000567299, -0.0019731859, 0.0003653672, 0.0680208877, -0.0210248418, 0.1702085435, -0.0004831529, 0.0214537997, -0.3614889681, 0.1069853976, 0.1515763849, 0.0946474671, -0.0004007838, -0.0324032865, 0.2372341454, -0.2320857793, 0.2376231104, -0.0012700463, 0.0922844112, 0.0000240438, 0.0660598651, 0.0850137994, 0.0024854152, -0.1815458238, 0.2624551952, 0.0005360804, -0.0428720973, -0.0019216649, -0.0001899984, 0.1582028568, 0.0663327351, 0.0001690598, -0.0771050379, -0.0713436007, -0.0123281088, -0.0425130352, 0.1203434467, 0.0065256241, -0.1537300646, 0.0924642310, -0.0080136061, -0.1156199127, -0.1679264903, 0.0874669775, -0.0020284946, 0.0256812125, -0.0493371785, -0.0003346560, -0.0077447579, 0.0899862722, 0.1252629310, -0.0017574638, -0.1204743013, 0.1304585636, 0.1170201898, -0.0861783251, 0.1505324394, -0.0717465058, -0.0663909614, 0.1186854467, -0.0000399683, 0.0000029275, 0.1004437804, -0.0757618174, 0.0474625938, -0.1119824797, 0.1327672601, 0.0710240826, -0.0757108182, 0.0876374394, 0.0050108572, -0.0300213266, 0.1055349112, -0.1682412773, -0.0007266423, -0.1437279582, 0.0808428600, 0.2881929278, -0.1121897399, -0.0004433383, -0.2054981738, 0.0649913102, -0.0514225923, 0.2517607510, 0.1294340342, -0.3265720904, -0.1438647956, -0.1504804194, -0.0002548920, 0.0049108164, 0.0094910460, -0.0107418858, -0.0001560884, 0.0030412776, 0.1800727099, 0.2045605481, 0.0104640853, -0.1021513343, 0.1140153781, -0.0966881737, -0.0329779722, -0.7527700663, 0.3694467247, 0.0518415235, -0.0360295847, -0.1252153516, -0.0031260410, 0.0235420633, -0.0827231631, 0.0758427829, 0.1392858624, -0.0338706449, -0.0817210600, 0.0520967841, -0.0041351989, 0.1627398878, -0.2400773764, -0.0949946567, 0.1235054061, -0.0489250794, -0.0249326210, 0.1116491109, 0.0415683202, 0.0042162230, -0.0002066297, -0.1643582284, -0.0822842717, 0.0968709439, 0.0125971828, -0.0000626963, 0.1998998970, 0.0032545053, 0.0347077027, 0.1482640505, -0.0731059685, -0.0651141405, 0.0410782732, 0.1722270399, -0.0627720132, 0.2642962635, -0.4199780226, -0.1698159575, 0.0489182547, 0.0326549560, -0.0938618854, -0.1541851461, 0.0393574573, -0.0060295709, 0.0311459266, 0.0082693035, -0.0420829765, 0.0409542993, 0.1748364568, -0.0000155361, -0.1243666038, -0.0083707897, -0.0962126851, -0.1335175931, 0.2753260732, 0.0573208556, 0.1350671202, -0.1314327866, 0.1438292265, -0.2472947985, -0.0996055603, -0.0626751930, -0.2026204169, 0.0200965647, -0.1839097291, -0.0496058948, 0.0049765669, 0.1777335852, -0.1212875172, -0.0319947340, -0.0331896916, 0.1826158166, -0.1057239696, 0.1990412623, 0.0328179225, 0.0919691548, 0.1351011395, 0.1001970321, -0.0002438740, 0.1813391447, -0.0000616300, -0.1583396345, 0.0754504725, -0.0630731732, 0.0001082022, 0.0531999990, 0.1600421220, 0.0932413340, 0.0464169346, 0.2224631011, -0.0782798007, 0.1827086806, -0.0592558309, -0.1730579883, 0.0130578550, 0.1066549420, 0.0283214543, 0.0903001800, -0.0265358333, 0.2522833347, -0.1386368573, -0.0287182592, -0.1010869518, 0.2055004239, -0.0023005884, -0.0287415814, 0.2245912701, -0.1839589030, 0.0037344231, 0.0924974978, 0.1309607029, 0.0493160710, -0.0084323743, 0.0982677266, 0.0842330828, 0.1890887618, 0.0000189051, 0.2670445740, 0.0458636433, 0.0327497013, 0.0587448515, 0.2031976879, -0.1282670945, 0.1501566321, 0.2373816520, 0.1960175037, -0.1925480664, 0.1447690576, -0.4090892375, 0.2041382641, -0.1940481812, -0.0833493173, -0.5027132034, -0.1273979396, 0.2395589054, 0.0351541340, 0.2293427885, -0.0298638660, 0.0114757568, -0.0336204022, -0.1714478880, 0.3274301589, 0.2190671116, 0.1700766534, 0.1567126513, 0.1355287731, 0.2285093814, -0.1077604964, -0.0002527066, -0.0007003453, -0.0493765622, -0.0534961596, -0.0747659728, -0.1069230810, -0.0082916040, -0.0082003111, 0.2112727314, 0.2862383127, -0.3987598419, 0.2328763902, 0.0688184351, -0.0451479219, 0.0004394696, -0.0218570046, 0.1453021616, -0.0195246823, -0.0899435654, 0.0003057934, -0.0005531641, -0.0142913312, -0.0084753660, 0.2245301753, 0.0623183139, 0.1646015793, 0.1078537926, -0.0572854280, 0.0977488384, 0.0839079246, 0.0320266970, 0.0911264047, 0.0002986235, 0.0011784595, -0.1439581960, 0.1519289762, -0.0062181521, -0.0435306132, -0.0266797226, -0.0103562195, 0.1776823997, 0.0299180467, -0.0246699154, -0.0854929239, -0.0428108536, 0.0025965674, -0.0646634474, -0.1433309019, -0.0001079736, 0.0032705204, 0.2254353911, 0.0870298743, 0.2059630603, 0.0000892550, -0.1428607702, -0.1537609547, -0.0008300842, 0.0866108313, 0.0314524993, 0.0721981004, 0.2323391885, -0.0197205078, 0.1057725102, 0.0002867302, -0.0000219996, 0.1396378577, -0.0705564320, -0.0751682296, 0.0001153390, 0.0671551600, 0.2238360047, 0.1534308791, 0.2040399462, 0.0680997893, -0.1791650653, 0.0885971487, 0.0940751806, 0.0159704760, -0.0594046116, -0.0015671194, 0.2142608911, 0.0918929502, 0.1740553379, -0.1100535169, -0.0593255609, 0.0483290404, 0.0292869788, 0.0688723102, 0.0796819925, 0.0713602602, 0.2034198195, 0.1756543219, -0.1729627848, 0.0176392775, 0.0604518726, -0.0256120041, -0.0000250781, -0.1169770733, 0.0477929004, 0.2221246958, 0.0180700757, -0.1723967493, -0.1043547764, 0.1252063513, 0.0177376810, 0.0778664574, 0.0181983206, -0.5548897982, -0.0131545831, -0.3106489480, -0.0862086266, -0.2480852008, 0.0935320482, 0.3674728572, -0.2116948962, 0.1604207903, -0.0015773764, 0.0213713925, -0.2057569772, 0.1533440053, 0.0000486039, -0.6147089005, -0.0412312187, 0.0419124663, -0.0876889229, 0.0467724279, 0.0128215915, -0.0166171081, 0.0218300559, -0.4376406968, -0.1680848449, 0.1979314238, -0.0763769746, -0.5193352103, 0.2048002183, 0.1483768076, -0.0020446898, -0.0000193083, 0.6110888124, -0.0001067053, -0.0361966416, 0.3181107640, -0.2827269435, 0.0001162017, 0.0178236384, -0.3123633862, -0.0521806441, 0.0772354528, -0.0019143689, 0.0007715491, -0.0003137967, -0.1965529472, 0.0008635938, -0.0744340792, 0.0461969301, 0.0000216937, -0.1498192400, 0.0003422937, -0.0954031199, 0.1833866239, -0.0001523955, 0.0961007476, 0.2144077271, -0.2984086275, 0.0432361029, -0.0369468927, 0.0003909598, -0.0055728550, -0.3108566105, 0.0010759069, -0.0946099758, -0.0351640396, 0.2257740945, -0.1962069869, -0.1141808406, -0.1661298126, 0.1423475742, 0.0236567166, -0.2269459516, -0.0287140813, -0.1641142219, 0.1083001196, -0.0902510434, 0.0005665720, -0.1811784655, 0.0325180441, 0.0209929496, 0.0000017660, 0.0383293815, 0.0001628308, -0.0944403559, 0.1841188222, -0.0002129643, 0.0428059474, 0.0282260999, 0.0815871581, 0.0135228531, -0.0984764844, 0.2327038646, 0.1144868508, 0.1130176187, 0.1617995054, 0.0246982183, 0.1514018774, -0.0309295934, -0.0958994478, -0.0026221338, 0.0000313102, -0.1051259264, 0.0566137433, 0.0045156116, -0.0007497186, 0.1044745073, -0.0021000737, 0.0579485297, -0.1716498733, -0.0236583706, 0.0875423625, 0.1375534236, 0.0203797203, 0.0093811071, 0.1115667373, 0.0600547679, 0.1277979910, 0.0000212115, -0.0529801957, 0.1780037731, -0.0004007123, -0.1784883738, 0.0147427339, 0.0574148782, 0.1234570369, -0.0295210425, 0.0886374265, -0.1046883166, 0.1680087894, -0.3351553977, 0.0987829790, -0.1415078491, 0.0169582777, -0.0000267971, -0.6441581249, -0.0508825257, 0.2986437380, 0.0268908944, -0.3346581459, 0.1009138301, -0.0252213739, -0.2180200368, 0.4856173694, 0.1590887010, 0.0188085288, 0.0332829207, 0.1873383075, 0.0052297809, 0.3358546495, -0.0002437501, -0.2300846577, -0.0709761605, 0.0015843695, 0.1783751249, -0.2107751966, 0.0373555236, 0.2871948779, -0.0542115457, 0.2910445631, -0.4102236927, -0.1307245791, 0.0392855853, 0.0622392967, 0.1419585645, 0.0292689614, -0.1209261268, -0.0025496755, -0.0551682115, -0.0767259672, -0.2166731656, -0.0362096950, 0.0833247304, -0.1464950293, 0.2206457704, -0.2236348987, -0.0465836674, 0.1543462425, -0.0000519818, -0.0359603763, -0.0960526839, -0.1667335778, -0.0001040882, 0.0169292241, -0.0410204232, 0.0903099850, 0.1372751594, 0.0173720606, 0.1120264381, 0.1183730662, 0.1505031586, -0.2596631646, 0.3197120428, -0.0539104529, 0.0027313365, -0.1299408078, -0.0514278784, -0.1314683259, -0.0583179370, 0.0282711238, 0.0148891844, -0.0879719779, 0.1519417018, 0.0804269239, -0.0279642008, -0.1031200886, -0.0179599635, -0.0007455809, -0.0736924857, -0.0791660473, 0.1210107207, 0.0912452638, 0.0699513629, 0.1694353074, -0.0000810853, 0.0464223102, 0.1965632141, 0.0247150548, 0.1865908951, 0.0084837396, 0.1176807433, 0.0484561585, 0.0670561045, 0.0852953270, 0.1038206145, -0.0382950082, -0.0027270655, -0.1001641750, 0.1351531148, -0.2268633842, 0.0004098787, 0.1701844484, 0.0589730442, -0.2053595781, 0.0990248844, 0.1354152262, 0.0561407804, 0.1732737571, 0.0921518654, 0.0803742036, 0.2743100226, 0.0143141570, -0.1087611690, -0.0001534022, 0.0920551419, -0.0373381265, -0.0000421529, -0.2139778137, 0.0769355521, -0.1017534435, 0.1160570458, -0.1718742251, 0.0002553725, 0.1264388114, -0.0025506883, 0.0109329689, 0.0555784442, 0.1393037289, 0.1164904907, 0.1675050855, -0.0137065873, -0.1780868173, 0.0745442584, -0.0003475329, -0.1806207597, -0.0001201834, -0.1843366325, 0.1499942541, 0.0058658230, 0.1091988608, 0.0580525734, -0.0158884916, 0.0256691836, 0.0313256234, 0.1190740764, 0.0013252059, -0.0369975641, 0.0061739716, -0.0991221145, 0.0122986352, -0.0432080701, 0.0414334126, 0.0294114668, 0.0991533101, -0.0012539868, 0.2076051682, 0.2491364479, -0.1499904543, -0.0322767459, -0.0005907468, -0.0551957302, -0.0910648182, -0.0270309839, -0.2484145015, -0.2671684921, 0.0820522830, 0.3303850293, -0.1592519134, 0.0194094665, 0.0866916403, 0.0911563039, -0.0898370296, -0.0013264189, 0.1021147147, 0.3153091669, -0.0658628121, 0.0002535692, 0.1541059762, 0.1512991935, -0.1489818245, -0.0005041377, 0.1275797784, -0.0455386378, -0.0170818698, 0.0194632187, 0.0096937055, -0.0757654235, -0.0139408093, 0.0020408302, 0.2436748147, 0.0276462268, 0.0723295957, 0.0901468024, -0.0178164020, 0.0877242014, 0.0003847261, -0.0001405700, 0.0009111692, 0.2759560347, -0.0785002634, 0.0913286582, 0.0987993330, 0.2403389066, 0.0245974008, 0.0313061215, 0.1307507157, 0.2448800653, -0.0003024857, -0.0998053253, -0.0227437019, 0.0972110704, -0.1840893328, -0.0001300358, 0.0355070829, 0.1188875213, 0.0568510555, -0.0799777284, 0.1350692511, -0.0003976937, -0.0007230595, 0.2285785377, 0.1401737928, 0.0065960428};
#endif

#endif
